nep4 2 Te Pb 
cutoff 8 4 73 8
n_max 4 4
basis_size 8 8
l_max 4 2 0
ANN 30 0
 -9.3227689e-05
 -7.0818511e-05
 -2.1142453e-04
 -9.3269678e-05
 -2.0486536e-04
  7.7691941e-05
 -4.4777382e-05
  1.3983527e-05
  1.9065155e-04
  6.0563971e-04
 -7.1769598e-04
 -3.1049282e-04
  2.8217430e-04
  1.7765108e-04
  2.8545165e-04
  2.0800879e-04
 -4.9425964e-04
 -3.4906328e-04
 -4.8276092e-05
 -2.6458260e-04
 -6.9709297e-04
 -6.2879745e-04
 -5.4126627e-05
  8.4328937e-04
  5.2596629e-04
  3.4190840e-04
  7.6513865e-04
 -4.4321621e-04
 -2.5928632e-04
  2.0133248e-04
  2.4132863e-02
 -2.1239140e-04
 -1.2642001e-04
  6.4519973e-04
 -7.1490889e-05
  8.7438774e-04
 -1.5938697e-04
 -3.7828131e-04
 -2.5277110e-05
  8.1509388e-06
  1.2507573e-04
  7.1935053e-04
  2.6216381e-04
  1.6682889e-04
  2.4045676e-04
 -7.5919047e-04
 -1.9177477e-04
 -7.0208142e-04
  2.8863440e-05
  2.6923657e-04
  2.7048375e-04
  3.3981254e-04
 -2.2350292e-04
 -4.0423044e-04
  4.6166731e-04
  4.9931812e-05
  1.0635075e-04
 -2.9769933e-04
  3.2132422e-05
 -2.7368270e-04
 -9.5005747e-04
 -1.2433818e-03
 -4.0201735e-04
 -1.4407148e-03
 -3.2585947e-04
  7.8153115e-04
  5.7121491e-05
  2.6905307e-04
  4.4654784e-04
  5.1352236e-04
  6.2028941e-04
 -5.4238969e-04
  3.9450132e-04
 -3.5472988e-04
  3.8596336e-04
 -1.2173487e-03
  4.5889181e-05
 -3.5798099e-04
 -9.2601008e-04
  4.6752050e-04
  1.7511090e-03
 -4.7411936e-04
  5.8401935e-04
  3.1344328e-04
  1.2239175e-04
 -5.3910766e-04
 -3.1522324e-04
 -2.9507378e-04
 -7.1919692e-04
  4.2480152e-04
  3.8049830e-04
 -1.0781478e-04
 -6.0416560e-04
  1.7226141e-04
 -1.4048362e-03
 -3.2690301e-04
  2.0655920e-05
 -1.4377371e-04
 -2.5454233e-04
  8.8413930e-05
  4.7234123e-04
  2.7962995e-04
 -2.3702453e-04
 -3.6138960e-04
 -1.2915628e-04
 -3.6910234e-04
  7.6427845e-05
 -2.1346218e-04
 -7.4105868e-05
  1.1312544e-05
  1.2261912e-04
  1.5529014e-04
 -8.5739783e-05
  7.1701048e-05
 -1.7777417e-04
  1.1466057e-04
 -9.9650839e-05
 -4.6560483e-04
  2.9770032e-04
 -1.4309958e-04
  7.5527234e-04
 -2.9264324e-04
  5.1947565e-05
 -1.2540265e-05
 -1.4637175e-04
 -4.2406682e-04
 -4.1246673e-04
 -4.7723349e-04
 -3.3037507e-04
 -3.1159408e-04
 -6.9833879e-04
  3.2202949e-04
 -3.5316171e-04
  1.7593456e-04
 -1.1929709e-05
 -6.6959515e-04
  5.4134158e-05
  2.0115802e-04
 -7.3646632e-04
  1.0941771e-04
 -1.3959908e-01
  1.3623305e-04
  1.9792994e-04
 -6.9798349e-04
 -9.6889773e-05
 -1.2649149e-04
  2.7531246e-04
 -1.9436402e-06
 -2.8409800e-04
 -5.8506551e-04
  1.1510315e-04
  4.1032137e-04
  7.3856575e-04
 -2.1160708e-04
  2.7270251e-04
  5.2542647e-04
 -4.4834902e-04
 -1.7655695e-04
 -4.5802561e-04
 -4.4217811e-04
 -3.3137246e-04
 -1.2412867e-04
 -1.0875288e-03
 -4.8968772e-04
  1.4347036e-04
 -7.7301089e-04
 -1.5163395e-05
  1.7197397e-05
 -6.3035940e-04
 -5.8881973e-04
 -1.1859946e-04
  1.6246004e-04
 -9.6331927e-04
 -4.6877924e-04
 -9.4421579e-05
 -2.7550969e-04
  2.8276940e-05
  1.9427303e-04
 -3.7259376e-04
  8.8105023e-02
 -2.3914889e-05
  4.0156092e-04
 -8.0832206e-06
 -3.1622208e-04
  4.2442718e-04
  5.3210405e-04
  8.0848564e-05
  1.8558795e-04
  4.3205614e-04
  9.6051490e-06
  1.2256861e-03
  1.8846971e-04
  1.7986409e-04
  1.8594140e-03
  2.1127253e-04
 -3.7510920e-04
  7.5864045e-05
 -2.2984006e-05
  2.6536532e-04
 -7.4780750e-05
  3.3803374e-04
 -7.0114020e-04
  3.8555131e-04
  5.3055963e-05
  7.8393699e-05
  9.1955153e-05
 -3.9319642e-04
 -2.4433905e-04
  3.2470052e-05
  4.6997218e-04
  7.2947896e-01
  5.0749922e-01
  8.8269782e-01
 -4.5948107e-02
 -3.2669583e-01
  1.5828878e-02
 -9.0195543e-05
  1.1465622e-03
 -1.1381517e-01
 -5.4074194e-02
 -4.7894397e-01
  1.7539097e-04
  5.6082790e-04
 -1.2193312e-01
 -3.5425145e-03
  3.1194353e-01
 -2.6414494e-04
  4.5228444e-04
  7.3370140e-04
  2.9262730e-05
 -4.6952557e-02
 -3.7799121e-04
  5.8360549e-04
  5.4542406e-04
 -1.8354911e-04
 -8.2736614e-04
  3.8041241e-04
  6.4882675e-05
 -1.5079106e-04
 -3.9543636e-04
  3.3151288e-02
 -1.0326215e-03
  1.9345526e-02
  2.7028652e-02
 -6.1084352e-02
 -7.2629149e-03
 -2.9487172e-05
  3.4808554e-04
  1.8844437e-02
  7.7860817e-02
  1.5236403e-01
  3.7005701e-04
  9.7769336e-04
  1.0457736e-02
  6.5262208e-04
  5.2440038e-04
 -1.3353130e-04
 -1.6908743e-04
  1.3106594e-02
  2.2050036e-01
  3.6638751e-04
  1.6905936e-04
 -1.5500460e-03
 -1.7558537e-04
  3.0217663e-04
 -8.2389981e-04
 -3.9138130e-04
 -1.7854973e-04
 -1.4763119e-04
  3.4297229e-04
  4.5941700e-04
  3.7487998e-04
 -1.0621037e-03
  3.2171956e-04
 -1.1952424e-04
 -4.3843454e-04
  1.6890082e-04
 -5.7221449e-04
  4.9645657e-04
 -1.1237529e-03
 -7.6823205e-02
 -2.8038959e-04
  4.7614507e-04
  3.2240790e-05
  3.9936815e-04
 -8.7450596e-04
  2.8457970e-04
  1.7535091e-06
  2.0733578e-04
 -6.2216807e-02
  8.6093438e-04
 -2.4661320e-04
  8.0150145e-04
 -7.1396859e-04
 -3.9821316e-04
  1.8501122e-04
 -7.0858019e-04
  5.5764499e-04
  8.0117973e-04
 -4.0087182e-04
  3.6571862e-04
 -1.5594787e-03
  5.6771218e-04
  1.3241507e-03
 -3.2181080e-04
  2.2628832e-04
 -1.2106941e-04
  2.5886504e-04
  8.0919178e-04
  2.5754768e-04
  7.0458738e-04
 -6.9362904e-05
 -5.0967530e-04
  3.9176934e-04
  3.6396352e-05
  2.5638827e-04
 -5.6099112e-04
 -4.9067463e-04
 -3.0558772e-04
 -1.0213412e-03
  3.1093476e-04
 -1.3897628e-04
  2.1425383e-05
 -2.9013577e-04
 -7.5629551e-04
 -9.4900560e-04
 -5.0947565e-04
  4.5804895e-04
  6.6286542e-05
 -3.9727724e-04
 -7.2346244e-04
  5.8001303e-04
  6.0335576e-04
  8.6832244e-04
  7.3052087e-04
  3.2014577e-04
 -4.9142557e-04
  1.0180803e-04
 -2.2539948e-04
  5.6093698e-04
 -7.8679720e-04
  7.7201443e-04
 -6.2381841e-05
 -2.8162953e-04
  5.1753083e-04
 -7.0795002e-05
  9.7801829e-05
  8.9266359e-05
  8.8637040e-05
 -7.3794843e-05
  8.0306447e-05
  1.6595423e-03
 -6.6995731e-04
 -7.0260314e-04
 -7.9769316e-06
  7.9871686e-05
 -5.5012241e-04
  3.2829368e-04
  5.3232879e-04
 -5.6891830e-04
  2.4741256e-04
  2.3588809e-04
 -1.7328422e-03
 -9.9601177e-04
  3.7038143e-04
 -7.4342999e-04
 -6.1040901e-04
  8.0727995e-04
  9.4316446e-04
 -2.5200547e-04
  1.6682300e-03
 -1.6096423e-04
  1.9052108e-04
  5.6171109e-05
  1.0914999e-04
 -2.3715378e-04
  9.6024468e-04
  1.5041860e-05
  2.2080205e-04
 -1.1697197e-03
 -4.4575147e-04
 -5.2286062e-04
 -2.6916579e-04
 -1.1585047e-03
  1.0410980e-04
 -8.0151200e-05
 -9.8643720e-04
  4.1117091e-04
 -3.4670284e-05
  5.6412217e-04
  5.0234798e-02
 -7.1542343e-04
  4.2326981e-03
  2.4858373e-04
 -4.4912737e-02
  3.0560204e-04
 -8.5843974e-05
 -1.9688996e-04
  7.8321055e-02
  1.7828439e-01
  6.5129444e-02
 -1.0674712e-04
 -9.7669556e-04
  5.3470614e-03
  5.9425720e-04
 -3.2599608e-04
 -3.2124776e-04
 -6.4517325e-04
  1.1224524e-02
  1.7037535e-01
 -2.0185599e-04
 -3.1122676e-04
 -1.5235550e-04
  1.0688860e-03
  4.3572276e-04
 -1.1830091e-04
  9.2671585e-04
  7.5575989e-04
 -4.3911784e-04
  2.0203199e-03
  3.1953904e-01
 -4.2807275e-01
  8.5496902e-01
 -1.5620322e+00
  7.9594082e-01
  8.0158460e-01
  1.2466438e-04
  2.3154849e-04
 -2.2758696e-02
  1.9562402e-04
 -4.1037844e-04
 -4.7343646e-04
  4.5364763e-05
  5.6603398e-02
  7.5395457e-02
  4.6937656e-02
 -1.7056036e-03
  3.1900386e-04
  6.0031052e-05
  2.1597989e-04
 -5.4574472e-01
 -3.6349456e-04
  4.0337298e-05
  8.3099719e-04
 -1.8126415e-03
 -3.6679190e-02
  1.1677027e-04
  9.4593217e-04
  3.4496672e-02
 -2.5824407e-02
 -6.9421907e-07
 -4.0614555e-04
 -5.4048846e-04
  3.5542293e-04
 -1.7652817e-03
 -1.5341364e-04
  2.3900897e-05
 -8.7453132e-05
  1.2188252e-03
 -4.3578554e-04
  5.6881749e-04
  9.0501147e-05
 -2.7629983e-04
  1.1053563e-04
 -2.4070349e-04
 -3.0096662e-05
 -1.0496496e-03
  1.4015683e-05
  5.9843263e-05
 -3.4295229e-04
 -2.1126939e-04
 -1.9838873e-04
  1.9909708e-04
  7.1969850e-04
  2.8101157e-04
  1.4418688e-03
 -1.0004133e-05
  7.6300325e-04
 -2.5931722e-04
 -6.4537913e-04
  1.0882966e-04
 -4.8856228e-04
  3.3685047e-04
  1.9275681e-04
  5.7248527e-04
 -4.8232712e-05
 -2.2810806e-05
 -6.3965749e-04
 -2.0627407e-04
 -5.7991949e-04
  7.4791681e-04
 -7.0804398e-04
  9.7837870e-04
 -6.7111035e-04
  3.1386528e-04
  1.0924308e-04
 -7.3656061e-04
 -2.6943558e-04
  1.6134800e-05
 -1.8199792e-04
 -4.3592918e-05
  1.9885747e-05
 -6.2211422e-04
 -6.5594359e-04
  1.2169913e-04
 -2.0815800e-04
  4.7496124e-04
  8.8255496e-05
  2.3827633e-04
  3.6457385e-04
 -3.2374865e-06
  3.4017689e-04
  3.4555732e-04
 -1.0181648e-01
 -2.3584663e-04
  1.9304080e-05
 -7.7727262e-04
  9.0198388e-05
  3.4101639e-04
  4.9290265e-04
 -6.7093049e-04
  3.6772166e-04
  3.8844050e-04
 -2.0144372e-04
  2.0284893e-04
  8.9826812e-05
 -5.4092740e-04
 -1.4591742e-04
  4.9816103e-05
 -3.0904775e-04
  2.2656788e-04
 -1.6872425e-04
 -1.2782335e-04
 -3.6398650e-04
  7.9178716e-07
 -7.1014438e-05
  4.6794664e-04
 -2.2828048e-04
  8.1189166e-05
 -1.5856057e-03
 -2.5583967e-04
  3.3366834e-04
  5.6985568e-04
 -6.8316149e-04
  3.8438820e-04
 -8.5673237e-06
  5.6127075e-04
  8.3944865e-04
 -3.6158069e-04
 -1.6356980e-04
  2.0677812e-04
  3.5761960e-04
 -5.6012848e-04
  2.4145872e-04
 -3.5898306e-04
  2.9859022e-04
  1.7961345e-04
 -1.1844901e-04
  1.3188257e-04
  6.3604944e-06
  3.3783269e-04
  3.9936149e-05
  1.8311481e-04
 -1.0418574e-03
 -7.8036537e-04
  9.9875644e-05
 -5.8807398e-04
  5.0250959e-04
  1.6969345e-04
 -2.1634622e-04
 -8.8597871e-02
 -4.1528084e-04
 -3.5998482e-02
 -9.4734639e-02
  1.1217560e-01
  4.3060772e-02
  1.5121308e-04
  4.3645161e-04
 -5.8894396e-02
 -1.1713819e-01
 -1.5011111e-01
 -1.4994721e-03
 -1.0432604e-04
 -3.0707715e-02
 -2.0976407e-03
 -3.6167346e-02
 -2.0299631e-04
 -4.9252354e-04
 -6.3828744e-02
 -2.6376694e-01
 -6.5667726e-02
  1.9520106e-04
 -1.1304981e-03
 -2.7765180e-03
 -3.0290042e-03
  7.1520172e-04
 -5.6408439e-04
  2.9081534e-04
  5.0478289e-04
 -8.6312427e-04
 -1.0079086e-04
  2.0557675e-04
  8.1625400e-04
  1.7966781e-04
  2.3102957e-04
  4.4574041e-04
  3.3718122e-06
 -2.2005469e-04
 -5.8445457e-05
  1.9151712e-04
  1.6717394e-04
 -1.5893462e-04
  4.9304246e-04
 -6.5260829e-05
  1.9174148e-04
 -2.0839990e-04
 -3.3456759e-04
 -2.7589404e-04
 -8.6291932e-04
  6.0026603e-05
 -7.2885532e-04
 -1.9321164e-05
  5.8635144e-04
  3.0130174e-04
 -2.7455387e-04
 -1.3107993e-05
 -2.7676186e-05
  2.0835649e-04
 -8.3388419e-05
  4.6860543e-04
  5.0497975e-04
 -1.0605459e-05
  7.1325827e-05
  3.1978509e-04
 -1.0422937e-03
  2.3595114e-04
 -2.3366274e-04
  2.1445450e-04
  9.3744820e-05
  7.3527370e-04
  4.0688718e-04
  2.8566635e-04
 -2.2667558e-04
  2.8545337e-04
  4.0340481e-05
  1.1891270e-04
 -3.9259729e-04
  1.3753839e-05
  1.1728673e-04
 -6.9454534e-04
  5.4335373e-04
  3.3027763e-04
  5.1932118e-04
 -7.6104188e-04
 -4.7422017e-04
  9.0091873e-04
  1.1453166e-03
  1.1205609e-04
 -1.6668596e-04
  4.2437433e-04
 -1.3026235e-03
 -5.9069082e-04
  3.5510800e-04
  1.8048700e-04
 -3.6649319e-04
 -3.2099261e-04
  3.3019558e-05
  3.9905554e-04
 -2.0104706e-04
  8.1937260e-04
 -7.5150681e-05
 -1.6458387e-03
 -5.5535755e-05
 -5.0950353e-04
  1.3918751e-04
 -9.0899051e-04
 -4.0202335e-04
 -1.8204321e-04
 -6.5138435e-04
 -2.6771211e-05
 -1.9527516e-04
  1.6648941e-04
  7.7991385e-04
 -7.2400511e-04
  7.9049624e-04
 -8.3333836e-04
  2.0168695e-04
 -1.8581606e-05
 -3.6944628e-05
 -8.5910026e-04
 -4.2292356e-01
 -8.1004412e-04
 -9.1385312e-02
 -8.6970568e-02
  3.8435218e-01
  3.7593503e-02
  1.3854534e-04
  9.5454045e-04
 -1.3264404e-02
 -7.6801412e-02
 -2.1529712e-01
  7.1881403e-04
 -1.2500228e-03
 -1.0808391e-01
 -2.5879836e-03
 -1.0093865e-01
 -4.4677770e-04
 -3.8910730e-04
 -1.7170683e-01
 -3.9183211e-01
 -6.9473247e-04
  1.9420798e-04
 -8.6030405e-04
 -5.3782981e-02
 -1.7510839e-02
 -2.5539020e-05
 -1.5413829e-03
 -5.4740539e-04
  4.4227327e-04
 -4.5613397e-04
  5.1007941e-05
 -2.0080339e-04
  6.1678648e-04
  8.6330743e-05
 -2.5348414e-05
 -6.1822857e-06
  5.3587946e-04
 -3.9417436e-04
 -2.3425364e-05
  5.3958531e-05
 -1.7467485e-04
 -7.0758711e-04
  2.5234222e-03
 -3.6740714e-06
  4.2520728e-04
  4.3960731e-04
 -1.2655621e-03
  1.9989762e-04
  7.2604744e-04
 -2.7419350e-04
  2.3429000e-04
 -1.5896727e-06
  2.9943549e-04
 -3.8406381e-04
  4.7145477e-05
 -9.2821690e-05
 -9.2619070e-05
  8.8544941e-04
 -6.8471371e-04
 -5.2972751e-05
 -5.6602949e-01
  1.0030895e+00
 -5.4352605e-01
  8.4230459e-01
 -1.1281170e+00
  2.4634637e-01
 -1.2422586e-03
  9.0614267e-05
 -1.1681450e-01
 -2.4570560e-01
 -1.7885110e-01
  2.9767803e-03
  2.9742083e-04
 -1.1273274e-01
 -2.0728607e-02
 -1.2013769e-04
 -9.5320056e-04
 -2.0694172e-03
 -4.1267656e-02
 -2.1053724e-01
 -2.2191967e-01
 -1.6072985e-04
 -5.2195392e-04
 -7.0777339e-01
 -2.9662403e-01
  3.7861191e-02
 -1.1062768e-04
  5.4925604e-04
 -7.4388430e-02
 -2.6216271e-04
  5.9012705e-01
 -1.2623644e-01
  4.8000592e-01
 -6.0058677e-01
  3.7897781e-01
  1.3323938e-03
  1.5657951e-04
 -1.2091466e-03
  4.4694725e-01
  4.0892392e-01
  3.2214370e-01
  1.3296961e-04
  1.7927965e-04
  3.4621877e-05
  2.5618398e-01
  1.3981447e-01
  7.4190588e-04
  6.3012703e-04
  2.8747544e-01
  4.9758688e-01
 -2.4308857e-02
 -7.4582902e-04
 -3.9455394e-04
  2.9018968e-03
 -1.7570087e-04
  2.6058743e-04
  2.1910212e-04
 -1.3171251e-04
  6.6320738e-04
 -1.1238645e-04
  2.3712392e-04
  8.0258706e-06
  4.1916122e-04
 -7.2475115e-05
  5.0403090e-04
 -1.4094327e-05
  3.6489189e-04
 -3.7454869e-04
 -1.2537021e-03
 -1.4986366e-04
 -2.2579628e-04
  7.3780300e-04
 -8.8519161e-04
  1.8458001e-04
 -6.2139581e-05
  2.0314835e-04
 -3.7782511e-04
 -4.2860332e-04
  3.2509444e-04
 -2.6113269e-04
  2.0158225e-04
 -6.5087393e-04
 -5.3387081e-05
 -1.9092913e-04
  8.5750397e-04
 -7.4321532e-04
  2.4885155e-04
  9.9923374e-05
  3.9414223e-04
  3.9251160e-04
  6.1384490e-04
  5.7568712e-05
  4.4941239e-04
  1.7356912e-04
  3.7365704e-04
  9.3041897e-05
 -1.6393111e-04
 -5.9173920e-04
 -5.7262529e-05
  1.7543007e-03
  1.9859182e-04
  2.9154148e-04
 -1.4368056e-03
  2.7839720e-04
 -8.3907723e-04
 -2.8010027e-04
  3.2403903e-05
  9.6351876e-05
 -6.4751745e-04
  1.6729772e-04
 -4.6996682e-04
 -2.7615746e-04
 -2.7465093e-04
 -1.0283929e-03
  1.7184694e-04
  1.0947690e-04
 -2.2226074e-03
  8.6059597e-05
 -2.9527649e-04
 -1.0051733e-03
  1.4524687e-04
  2.0086336e-04
 -6.9903226e-06
 -2.0155129e-04
  6.6244058e-05
 -4.3650789e-04
  8.0110251e-05
  1.4269832e-03
 -2.5068474e-04
  1.1013130e-03
  2.7176589e-04
  6.8262842e-04
  1.9598116e-04
 -7.7100971e-04
 -6.3584949e-04
  2.6107967e-04
 -1.5046378e-03
 -2.9443720e-04
  6.8040629e-04
  7.3183858e-04
 -6.4832572e-04
 -1.7856664e-04
  2.7514651e-04
 -2.0193534e-04
  1.2303454e-04
  1.0190359e-03
  1.0854479e-04
  4.8775825e-04
 -2.0271064e-04
 -6.5651591e-05
  3.9703283e-04
  1.3667479e-04
  6.0746417e-04
 -7.9116144e-06
 -2.7890145e-04
  3.4463021e-04
 -8.4783998e-05
  1.1282794e+00
  3.9586221e-04
  1.6291723e-04
  2.8234744e-04
  1.0921563e-04
 -3.4182199e-04
  6.5797882e-05
  1.8809831e-01
 -1.4672747e-05
  1.5451094e-04
 -4.4959981e-04
  1.0683093e-03
 -1.3859496e-03
 -4.0521822e-04
 -4.3339191e-05
 -6.4215396e-04
 -1.2511341e-03
  8.2735256e-05
  3.0128804e-01
 -2.8133714e-03
  1.7537539e-04
  6.8107189e-04
 -8.8013061e-05
  3.9211416e-04
 -1.0992386e-03
  9.6570351e-05
 -7.2104385e-04
  5.5109391e-05
  1.9240778e-02
  6.9750845e-04
 -4.6677950e-01
  3.9644259e-01
 -9.7178362e-02
  2.6195531e-04
 -6.6808920e-04
 -1.3444780e-03
  3.0996028e-01
 -6.3336289e-01
 -2.6112775e-04
 -1.6715709e-04
 -5.1809885e-02
  1.0828759e-04
 -4.0654567e-01
 -1.5546187e-02
  1.3462367e-05
 -1.2933875e-04
 -4.6917057e-01
 -8.0418854e-04
 -9.9529177e-01
  5.1211107e-01
  4.7844078e-04
 -1.2590911e-04
  1.5038779e-04
 -6.8279449e-04
  9.3504478e-04
  3.6608800e-04
 -7.4008649e-04
  1.7878354e-04
 -4.1775868e-04
  3.0297105e-04
  4.4026143e-05
  5.4453234e-05
 -1.6793520e-04
 -8.4056112e-05
 -6.0921320e-04
  8.0559892e-04
 -5.0718570e-04
  9.5383730e-04
  7.7826920e-04
  3.6992974e-04
 -7.8628043e-04
 -4.9560331e-04
  1.2652938e-04
  6.5684301e-04
  1.8619459e-05
  1.0559972e-03
 -3.8621682e-04
 -5.2287771e-05
 -6.6695263e-04
 -5.8341154e-04
 -2.3131898e-04
  3.8456699e-04
 -2.4539165e-04
  4.2784007e-04
  5.3850265e-04
 -7.0574119e-05
 -6.5105618e-04
  2.9076179e-04
  6.2508404e-04
  2.5162537e-04
 -1.2985496e-03
  9.3255320e-04
 -1.8764214e-04
 -1.1796309e-04
  2.0927639e-04
  4.9714203e-04
 -2.3529599e-04
  7.9522142e-04
  5.3064316e-04
  5.7785632e-04
 -1.9760111e-04
  6.2623731e-04
  4.7529738e-05
  1.0533301e-04
  1.5529736e-03
 -2.3019918e-04
  1.9445072e-04
 -4.7430448e-04
  2.5064326e-04
  1.0984300e-05
  2.0353180e-04
 -1.2971812e-04
 -2.7637731e-04
 -2.6274016e-04
 -2.0395214e-04
  5.3431548e-04
 -3.5895966e-04
 -8.9256320e-04
 -4.7054843e-04
  9.3294925e-04
  1.4408606e-03
  7.3252857e-04
 -1.1133973e-03
 -3.1945016e-04
  8.0843724e-04
 -3.5436949e-04
 -1.3058163e-04
 -1.1706032e-03
  3.2423096e-04
 -8.8824279e-04
 -5.5871444e-04
  1.5602267e-04
 -3.1733161e-05
 -9.1282418e-04
  3.2554596e-04
  9.8049303e-04
 -9.8005508e-04
 -1.9047709e-05
  1.1226425e-03
  8.6072250e-04
 -1.5103531e-03
  1.2692528e-05
  1.5169386e-04
  1.9664547e-04
 -2.4636442e-04
 -2.7532101e-04
  2.2409164e-04
  9.6001354e-04
  1.0434188e-03
  1.6817240e-04
  1.8089125e-04
  7.5598109e-05
 -4.8118902e-04
 -1.0796047e-04
  5.4810493e-04
 -9.7135204e-04
 -1.3056870e-04
  5.1191106e-04
  2.8196011e-06
 -1.6188243e-03
 -1.6164510e-04
  8.1089638e-05
  4.8167832e-04
 -8.1073980e-05
 -1.2671894e-04
 -3.6417734e-04
 -2.4136093e-03
 -4.5755578e-04
 -4.7143723e-04
 -4.7227499e-04
 -2.1123861e-04
 -2.6249012e-04
  3.3195956e-05
 -2.8922831e-04
  1.9274901e-04
 -2.5509644e-04
  6.9902526e-05
 -1.7093997e-04
 -4.9240480e-04
 -1.2994057e-03
 -3.1573226e-04
  4.3195958e-04
 -1.8831147e-04
  1.4357292e-05
 -5.9786899e-04
 -1.2055811e-04
 -4.8177413e-04
  1.1299695e-03
  5.0384057e-04
 -4.3031821e-04
  2.6529931e-04
  1.4802940e-05
  3.9622554e-04
 -4.2708468e-04
  4.4589306e-04
 -2.6551905e-04
 -2.5495910e-04
 -4.2953691e-04
 -1.2039442e-03
  1.6917597e-04
  3.6441663e-05
  5.4444390e-04
  4.3029486e-05
  1.6273827e-04
  1.3975450e-03
  9.5702021e-04
  1.9326902e-04
  4.5854825e-04
  9.0413749e-05
 -1.2178360e-03
 -5.3132820e-04
  6.5313809e-04
 -1.1208934e-04
 -5.8759324e-04
  2.3118418e-04
 -7.0781051e-04
  1.1261268e-04
  1.8510592e-04
 -6.6107378e-04
  1.4999722e-06
 -2.9518054e-04
 -5.0885911e-04
 -1.0577930e-04
  2.0544532e-04
 -3.0881539e-04
 -1.1938013e-04
  2.7518981e-04
 -1.2635533e-03
 -3.3418066e-04
 -2.3127150e-05
 -1.8576022e-03
 -4.8292839e-04
 -7.1946380e-04
 -1.0148149e-03
 -1.1109117e-03
 -6.3460594e-04
 -2.9643837e-04
  6.2545424e-04
  2.1529998e-04
  2.5965410e-04
 -2.9075571e-04
  8.1885315e-04
  1.4652217e-04
  1.3350854e-04
 -6.8017939e-04
  4.8405171e-04
 -6.9193193e-04
  5.6799024e-04
 -2.2859267e-04
  2.5558108e-04
  2.4914014e-04
 -9.3153631e-04
 -3.0911795e-06
 -4.6299477e-04
  4.1171387e-04
 -4.8935792e-04
 -2.9500056e-04
  1.8454884e-03
 -1.6473812e-05
 -8.7691202e-05
  1.2469628e-04
 -7.9919945e-04
 -3.0555477e-04
  1.1211990e-03
  2.0767318e-04
 -5.0066365e-04
 -3.8641479e-04
 -2.9792701e-04
  6.2934298e-05
  2.1527751e-05
 -6.8354845e-04
  2.6949085e-04
 -5.3433958e-04
 -3.7477272e-05
 -2.4850687e-04
 -1.9248326e-01
 -6.4967497e-04
 -3.5090899e-04
  7.3989181e-06
 -1.3336714e-03
 -9.1426453e-04
 -9.8948309e-04
 -1.8296519e-04
  9.2955469e-04
 -1.0345024e-03
 -3.3961301e-04
 -6.3699333e-04
 -4.5647408e-04
 -7.8834238e-04
 -4.4594269e-04
 -2.2329759e-06
 -2.0111547e-04
 -2.0511786e-04
  5.1301688e-01
 -6.9172001e-01
  6.7737252e-02
 -4.4303602e-01
 -4.6191889e-01
  8.9954847e-01
  3.1657694e-04
 -3.1137908e-01
  3.6293085e-04
  2.0302370e-01
  5.5215566e-04
  1.9050814e-04
 -3.2686624e-01
 -1.7232453e-03
 -8.8426018e-01
  2.7065977e-01
  3.9363719e-04
  4.7041741e-01
  1.1328255e-05
  5.8781075e-01
 -5.3627361e-02
  1.3766956e-04
 -5.4173642e-01
 -7.6806136e-05
  3.2316974e-01
  8.8579185e-02
  1.2175693e-03
 -2.9366997e-03
 -4.0337935e-04
 -9.1853194e-02
  4.0801729e-05
 -8.7174051e-04
  3.9246294e-04
  1.0417373e-04
 -4.8940524e-04
 -1.5208677e-03
  2.4187742e-04
 -9.7151019e-04
 -6.3787379e-06
  4.5633598e-04
 -4.6601993e-04
 -3.3096201e-04
  2.8970905e-04
 -9.7173324e-04
  4.9562746e-04
 -2.2777924e-04
  1.4182679e-04
  4.2938159e-04
  8.5430125e-05
 -4.6034440e-04
 -1.0418861e-04
  3.7136717e-05
 -7.2231254e-04
 -2.5011876e-04
  7.4962063e-06
 -9.7045995e-04
  5.5364234e-04
 -2.2577302e-04
  1.4828684e-05
 -2.5189566e-04
 -6.7856419e-04
  5.8465276e-04
  9.3526360e-05
 -2.2073382e-05
 -4.2496729e-04
 -5.4480264e-05
  4.3754803e-04
 -8.3114777e-05
  9.6283661e-04
  5.8892200e-04
  1.8755634e-03
  3.4196509e-04
  3.4566471e-04
 -1.1069801e-03
  5.2858074e-04
 -1.1828283e-04
 -6.0611565e-05
 -1.6518556e-05
 -2.1774881e-04
  7.1374455e-04
  1.7420959e-04
 -7.4244768e-04
 -6.8195449e-04
 -5.8191677e-04
 -1.5522036e-04
 -3.7428169e-04
 -3.3493619e-04
 -5.8282976e-04
  9.9249603e-04
  8.7834930e-04
 -6.2712043e-04
 -9.2937535e-04
 -5.9303024e-05
  5.0091930e-04
  2.7470387e-04
  1.4672447e-04
 -9.2988092e-05
 -7.7770295e-04
  3.2089889e-04
  6.4248004e-04
  8.3267696e-05
  9.2814938e-05
  3.0787237e-04
 -1.9192309e-04
 -4.2221663e-04
 -3.3256638e-06
 -4.8209645e-06
  8.7427400e-04
 -2.4458040e-03
 -6.2810717e-04
  4.3918768e-05
 -2.1906124e-04
 -1.2369516e-04
 -8.0200948e-04
 -2.9444456e-04
 -9.2815550e-04
 -5.6340330e-05
 -1.0032821e-04
 -1.6148563e-04
 -3.2214163e-04
  4.1519932e-04
 -1.6306454e-03
 -3.0690324e-05
 -2.7595364e-05
 -6.4166932e-04
  2.7926979e-04
  6.1365002e-04
  1.6890527e-04
 -1.1322561e-03
  3.6719104e-04
 -4.1975043e-04
 -4.4841922e-04
 -8.4853840e-05
  8.6674409e-04
 -1.0447662e-04
  3.9423560e-04
 -1.2920680e-04
 -9.9239136e-05
 -8.7127998e-04
 -1.9543413e-04
 -9.2643990e-05
  3.9859209e-04
 -1.0385399e-03
  3.2495166e-04
 -9.3359809e-04
  7.9995336e-04
  6.8292604e-04
  6.8561488e-04
 -4.2156508e-04
  4.4065186e-05
  1.3880286e-03
  5.6584581e-04
  1.3212421e-03
  6.0120563e-04
  7.9703977e-04
  1.3184479e-04
  9.8236883e-04
 -6.7301380e-04
 -1.2673469e-03
 -1.6187280e-04
 -8.7484694e-04
 -5.5182312e-04
 -4.3171371e-04
  2.4079080e-04
 -4.1923588e-04
  1.8018730e-03
  2.0197498e-04
  4.1884606e-04
  6.2614976e-04
 -1.1558719e-04
 -2.9086499e-04
 -3.2037380e-04
  1.1161846e-04
  1.0590107e-03
 -2.0126345e-04
  6.2964327e-04
  2.5128369e-04
 -1.1816176e-04
 -2.8229487e-04
 -4.3935797e-04
  5.5900528e-03
  4.7831256e-02
 -5.8248430e-01
  3.8362172e-01
  1.1226492e-02
 -1.6235274e-01
  1.1156574e-03
  6.8330992e-04
  8.3976169e-04
 -2.6955754e-01
 -8.0977625e-05
  4.1933422e-06
  1.2605532e-01
  2.3857387e-05
  3.2445092e-02
 -1.5445969e-01
 -1.7646575e-04
 -3.7000889e-03
 -6.7901949e-04
 -1.1091030e-01
  1.7026677e-03
 -5.8149040e-04
  1.2965725e-01
  1.5505262e-04
 -1.1848001e-01
 -4.8135277e-03
  1.3860548e-04
  2.5434373e-03
  4.2802814e-04
  6.0067291e-04
 -1.8305575e+00
 -2.3744078e-01
 -6.1263424e-01
 -3.2512903e-01
 -5.7286751e-01
 -6.2202394e-01
 -4.7305264e-04
 -5.8829077e-02
  2.0873696e-03
 -1.0725043e-03
 -8.0469638e-02
 -3.0249481e-05
 -7.3801205e-02
  4.1650064e-04
 -2.8608066e-01
  1.9248107e-03
  6.7697372e-05
 -7.4517977e-01
  9.5200684e-04
 -3.8343209e-01
  3.5893655e-04
  7.7040080e-04
 -7.7394615e-03
  2.8344346e-04
  5.1523036e-01
 -2.1530171e-04
 -3.8963608e-05
 -4.2541556e-02
  3.6292415e-04
 -1.1185708e-01
  2.1124190e-04
 -1.1771901e-04
  1.3677035e-04
  4.6395612e-04
  6.0281792e-04
  4.2915497e-05
  4.2168688e-04
  1.2522594e-03
  3.1024110e-04
  1.5385782e-04
 -3.3101955e-04
 -5.8880326e-04
 -8.2961156e-04
 -1.0294621e-06
 -3.6050321e-04
  6.3558132e-04
  1.1504891e-03
  6.0859154e-04
 -1.9375483e-03
 -1.9866854e-04
  1.1534867e-04
 -3.3918448e-04
  7.5270794e-04
 -5.2613160e-04
 -4.0078175e-04
 -5.2900770e-04
 -9.4435411e-04
  1.1998153e-03
 -4.5045534e-05
 -3.4732537e-04
 -5.1949220e-04
  6.1373739e-04
  1.6649894e-04
  1.2029370e-03
  2.4673191e-04
  4.6298819e-04
 -7.8316702e-04
  1.6625845e-03
  8.5232372e-04
 -3.7382997e-05
  2.1669737e-04
 -1.4365535e-03
 -5.8197684e-04
  3.6038648e-04
 -4.3684366e-04
 -2.7095265e-04
 -8.3898852e-04
 -6.6754792e-04
 -1.7845260e-04
  3.2148912e-04
  2.4073992e-04
 -5.8158120e-04
  5.9228588e-04
 -1.9036858e-04
  7.0764200e-04
  9.8936807e-04
  1.9601127e-04
 -7.0733303e-04
 -1.9467888e-04
  3.9356132e-04
 -1.2160221e-04
 -6.8189147e-05
 -1.0261251e-04
 -1.2596123e-03
 -7.1144244e-04
 -4.3175515e-04
 -7.9218895e-05
 -6.3464080e-04
 -5.4466870e-04
 -3.3205448e-04
  3.4253430e-04
  1.6375599e-04
 -3.1107341e-04
  3.1374810e-05
  1.7699091e-05
 -1.2705908e-03
 -6.2813517e-05
  2.5286095e-04
 -1.0775541e-04
 -6.1695289e-04
  3.2888522e-04
  8.4686605e-04
  4.5816269e-04
 -2.5503803e-04
 -1.4472645e-04
  5.0897303e-04
  8.4973633e-04
  2.6949882e-04
  1.7187947e-04
 -9.9304343e-05
 -3.8316025e-04
  7.6966556e-03
 -3.2932192e-02
 -2.9159484e-02
  1.8187277e-03
 -4.8161281e-04
  2.2973374e-05
  2.2556391e-04
  6.4093410e-04
 -3.5235210e-04
  1.2204167e-04
 -8.4134888e-05
  4.7981493e-06
 -1.1169647e-03
 -1.7026592e-04
 -1.6667559e-04
  4.5316972e-04
  1.6079369e-04
 -2.2545399e-05
  1.9134083e-04
 -2.5772670e-04
 -1.6719569e-04
  3.1549458e-03
  8.9967914e-04
 -3.2442353e-05
 -2.4885946e-04
  3.7593444e-04
 -3.1403036e-04
  1.1017016e-04
  4.5510801e-04
 -1.5205838e-04
 -3.1816238e-04
  3.6222761e-04
 -3.1248110e-04
 -2.5289936e-02
 -3.7251171e-04
 -2.6220869e-04
  2.7592661e-05
  3.3593431e-04
 -1.5331787e-03
 -4.7195521e-05
  1.0853942e-04
 -7.0152659e-04
 -1.1855431e-05
  2.5941196e-04
 -1.6196843e-04
 -5.7526852e-04
 -7.8419643e-04
  5.8814680e-04
 -2.6448410e-05
 -5.9282366e-04
 -4.9765635e-04
 -5.3485431e-04
 -4.0698165e-04
 -6.3535973e-04
  5.4394786e-05
 -2.4823498e-04
 -6.2206958e-04
  7.4653141e-04
  5.3908542e-04
 -5.4285635e-04
  9.1384136e-05
  1.2812214e-03
  1.8223372e-04
 -7.3738041e-04
 -9.4448324e-06
  1.1187445e-04
  1.2231819e-04
 -4.2179803e-04
 -3.8934787e-04
 -3.8711267e-04
  3.0775086e-04
  7.5169076e-04
  4.8625676e-05
 -1.3984814e-04
  2.8105063e-04
 -9.1980980e-04
  5.4067501e-04
 -2.0854245e-04
 -6.1956607e-04
  1.1858995e-03
  4.5444549e-04
  5.5659399e-04
  7.7816565e-04
 -3.4578191e-04
 -5.5516104e-04
  8.4732084e-05
 -7.5614837e-05
  3.1276824e-04
 -3.6339971e-04
  1.6667284e-01
 -4.3026277e-01
 -1.3818796e-01
  6.7659748e-01
 -2.4258354e-01
  2.8344649e-03
  2.2216153e-04
 -3.8672378e-03
 -9.2903661e-05
 -1.2878522e-01
  1.9737801e-01
  9.0386078e-04
 -5.2599877e-04
 -4.2789493e-04
  2.0651028e-01
  9.2788137e-02
 -2.9476694e-04
  1.9439345e-02
 -1.8842533e-04
 -1.1242021e-01
 -5.0415943e-04
 -2.7694889e-05
 -2.4457513e-03
 -5.4491451e-04
  8.1249252e-02
  1.1624903e-02
 -2.6447631e-05
 -2.1147220e-05
  2.0709782e-04
 -2.8512094e-03
  4.7272057e-04
  1.0790146e-04
 -9.0611196e-04
  5.5307976e-04
 -3.4484934e-04
  3.0999345e-04
  1.9893649e-05
  1.4194858e-05
 -1.0702824e-04
 -1.0244238e-04
  9.2833326e-04
 -2.2591723e-04
  4.1372897e-04
 -1.7785677e-04
  1.0505515e-03
  8.2162605e-04
  5.2768405e-04
  3.9330099e-04
  2.0678132e-04
 -7.2579412e-04
 -3.1443720e-04
 -1.0441763e-03
  3.2991313e-04
  9.2137925e-05
 -5.4647983e-04
 -2.1678743e-04
 -6.1845110e-04
 -6.1667903e-04
  4.5231555e-04
  1.4161115e-03
 -5.5976742e-04
  4.1779815e-04
 -6.3202519e-04
 -1.0999871e-04
  1.2587737e-04
 -7.7569835e-05
  1.6452796e-04
  1.0437571e-03
  1.8180706e-04
 -7.5764483e-04
  1.4916388e-03
  8.4045405e-06
 -2.6390245e-04
  1.9437910e-04
  1.6726117e-05
  2.2269400e-04
 -9.6786988e-04
  3.3691365e-04
  2.0580734e-04
  1.3220540e-04
 -7.9881880e-05
 -5.0691736e-04
 -9.1191987e-04
  2.8271182e-04
  6.7405403e-04
 -1.5532855e-04
 -2.4938458e-04
 -1.0880022e-03
  3.5501691e-04
 -3.3278382e-04
 -1.4819340e-04
  6.9698883e-04
 -5.7426083e-04
 -6.4401579e-04
 -8.9670451e-05
  1.8549227e-04
 -3.2112282e-04
  2.4961229e-04
  2.0985985e-04
  1.2143869e-03
 -2.7503555e-05
 -5.7222642e-05
 -2.3218976e-04
  2.7505530e-04
  7.8213558e-04
 -7.1282673e-04
 -3.0857819e-04
  1.7314576e-04
 -1.8546057e-04
  1.0130257e-04
 -3.1814037e-04
 -3.2564491e-04
  2.3494035e-04
 -9.8297005e-06
 -1.8729725e-04
  3.2828303e-04
 -8.2364109e-05
 -1.2997964e-04
  3.6651790e-04
  4.0924334e-04
 -1.2039665e+00
 -5.2065533e-01
  2.4972642e-02
 -9.4609626e-02
 -1.9914475e-01
 -8.1718042e-02
 -7.3663773e-06
 -1.0542965e-03
 -8.4659529e-05
 -2.5495589e-01
 -2.1312322e-01
  4.3312099e-04
  1.0438641e-03
  9.5086603e-04
 -2.2099616e-03
 -3.1046489e-01
  2.3291743e-04
 -1.0023139e-01
 -5.1558728e-04
 -2.9784113e-01
 -5.9275090e-04
  1.2126082e-04
  5.1884718e-02
  4.1761302e-04
 -7.3861366e-04
 -8.9751175e-03
  3.5394434e-04
  2.5631703e-04
  4.6192051e-04
  2.7567815e-04
  1.5607614e-04
  7.1813061e-04
 -2.6036540e-04
  1.4293370e-04
  9.1792340e-04
  1.0242092e-04
  1.3790869e-04
 -1.4314095e-04
 -1.4905861e-04
 -3.9017684e-04
 -6.3110830e-04
 -4.6806304e-05
 -1.0808480e-03
 -5.2348398e-05
 -2.3377118e-04
 -5.1362620e-04
  1.6880382e-04
 -4.9553672e-04
  2.1499649e-05
 -7.0136873e-04
 -1.4301852e-04
 -1.9207083e-04
 -5.8487343e-04
 -1.1253416e-03
  3.3848028e-04
 -3.0061352e-05
 -9.3971990e-04
  3.8412146e-04
 -2.7447526e-04
  5.2473595e-04
 -1.0864650e-03
  7.6259108e-05
 -1.5894698e-04
 -1.5880399e-04
 -2.6506899e-04
  1.0861321e-04
  1.2586778e-04
  5.2923098e-04
  3.2841743e-04
  1.1206395e-03
 -2.9994480e-04
  3.1162746e-04
 -5.0582422e-04
 -5.0456356e-04
 -9.1664004e-04
  6.5454828e-05
  7.8285567e-04
 -2.7005846e-04
  3.3484295e-04
 -6.1933254e-04
  1.3593849e-04
 -2.8771252e-04
  2.1664555e-04
  2.0567481e-04
  7.8015590e-05
 -8.6166656e-05
 -4.4785818e-04
 -1.5653933e-04
  1.7892704e-03
  6.9363351e-04
  5.6061422e-04
 -1.0106286e-04
 -1.1464717e-01
  1.8984212e-04
 -3.0448104e-04
  1.5111607e-05
  3.1207126e-04
  4.7329473e-04
 -2.4531590e-04
 -5.2521069e-04
 -1.2942287e-04
 -3.6723912e-04
  3.2326818e-04
 -6.3285470e-04
  1.1448712e-03
  3.6651830e-04
  6.6926074e-04
 -4.5376460e-04
 -5.9568486e-04
  1.0000436e-04
  1.8666768e-05
 -1.4355240e-04
  4.2344612e-04
 -4.4472958e-04
 -4.2623267e-04
 -3.7819671e-04
 -7.2329676e-05
  2.7243877e-03
 -4.6020126e-05
  6.3438126e-04
 -1.5963953e-04
  3.4509675e-04
 -3.9729566e-04
 -9.2129529e-05
  1.1213359e-04
 -2.2078337e-04
 -2.7826953e-05
 -5.0510014e-05
 -1.5801495e-01
  2.1949923e-04
  1.9586070e-04
 -3.5142215e-04
 -1.4562376e-03
  1.0843577e-03
  7.8980416e-02
  5.1126796e-01
  5.3283514e-04
 -8.0697396e-04
 -2.1928512e-05
  6.6510154e-05
  1.0972178e-04
  3.8608868e-04
 -5.1243973e-01
  6.1121932e-04
  1.5514178e-04
  5.1771667e-06
  4.0068913e-01
 -2.7170501e-04
  1.6842349e-04
 -2.7244198e-04
 -3.8764509e-04
  3.5895832e-04
  9.9645207e-05
  9.5509615e-04
 -2.7755486e-05
  8.2354434e-04
  1.3603792e-04
 -8.8623329e-04
 -9.8217565e-01
 -9.8149852e-05
  3.0952893e-04
 -6.0557830e-04
  1.8872457e-05
 -1.9329917e-04
  7.7731490e-01
 -9.0160829e-01
  4.3504863e-04
 -6.9757050e-04
  9.2684983e-05
  1.6319497e-01
  3.6709622e-04
 -5.9928256e-04
 -9.9126452e-01
  2.4469502e-04
  5.1555515e-04
  1.0960151e-03
  6.7957747e-01
  4.0432095e-04
 -2.5356002e-04
  4.6647884e-02
  3.3326042e+00
  4.6674824e-01
 -7.5785297e-01
 -2.4988605e-01
 -1.6082145e+00
  2.1029350e-03
 -1.3146682e-04
 -5.8921945e-04
  1.4220250e-01
 -3.4119189e-01
 -5.7285704e-02
 -4.1119593e-01
 -1.7965403e+00
 -2.1922107e-01
 -5.7854112e-03
  3.1321615e-01
 -1.2884866e+00
  1.4851420e-01
  3.4358254e-01
  1.8560337e+00
  6.1072540e-01
 -1.5702451e+00
  6.5450352e-01
 -2.1208112e-01
  3.3559358e-01
  3.1078795e-02
 -9.9960774e-02
  1.7552830e-01
  1.0219749e+00
  9.2158921e-02
 -5.4374331e-01
  8.8265353e-01
  5.4421254e-02
 -5.1838841e-02
 -6.5012145e-01
  5.8119476e-01
  5.5039573e-01
  1.7276181e-01
  4.6374336e-01
  7.2822094e-01
 -1.3395760e-04
 -5.6561694e-04
 -8.5774034e-02
  1.4322232e-05
  1.0163624e-02
  3.9912948e-01
  3.4691527e-01
 -2.7417701e-01
 -1.3262711e-02
 -5.4806501e-01
 -1.2331808e+00
  2.0348588e-04
  1.0437278e+00
 -2.9790401e-02
 -1.8502882e+00
  3.1303507e-01
 -8.5935459e-02
  1.4302614e-01
 -1.9984085e-02
  1.0957552e+00
 -1.4629152e+00
  2.4835508e-01
  2.6233312e-01
  1.5009159e-01
 -1.6625455e-01
 -5.9658754e-01
  4.6807891e-01
 -4.9319971e-01
 -3.3538181e-01
 -1.5582855e-01
  2.7984709e-03
 -2.3346953e-02
 -1.7435837e-01
 -1.3654737e+00
  1.2186654e+00
 -1.3807815e-02
 -6.3693158e-02
  1.3304576e-03
 -1.9552671e-04
  5.1455636e-04
  1.3622915e-04
 -1.1596928e+00
  1.6012152e-01
  1.3762094e-03
 -3.8491333e-01
  1.4344887e+00
 -1.8684305e-01
 -4.3323976e-01
 -1.4452957e-01
  4.5267475e-04
  3.5983729e-01
  8.6325296e-04
  1.1354110e-02
 -1.2698624e+00
 -4.5890700e-02
 -5.6018791e-04
 -5.0055039e-01
  5.0599128e-01
  1.1702698e+00
 -9.1211557e-02
  2.8608683e-02
 -6.0411286e-01
  6.8997020e-01
 -1.0205811e+00
 -1.1959386e-02
  2.2536938e-01
 -1.0877252e-01
  3.9810866e-02
  2.0447844e-01
 -9.1745633e-01
  8.7475908e-01
  2.2731829e-01
 -4.6266928e-01
  3.5113152e-02
 -4.9636903e-01
  9.4673036e-05
 -5.3962728e-04
  2.1028562e-01
  4.7601688e-01
 -1.9451296e-05
 -2.4197460e-03
  1.5046314e+00
 -6.0372502e-01
 -7.0205998e-01
 -3.5415179e-01
  1.0497591e-01
 -1.5111941e+00
  4.1759512e-01
  1.8629408e-04
  1.5217618e+00
  8.7845242e-01
  3.9439503e-04
  1.1792455e-01
  2.5702170e-03
 -2.7619132e-01
 -9.3872786e-02
 -4.2849860e-01
  3.0524689e-01
 -1.7069448e+00
 -4.3992794e-01
  5.8673859e-01
 -1.0364481e+00
 -1.6526242e+00
 -6.7614228e-04
 -3.1356639e-01
  9.6775436e-01
 -1.0170491e+00
  9.9935448e-01
 -1.0546502e-02
 -1.3173645e-04
  5.0452631e-02
 -3.6520106e-04
  1.2156150e-03
 -6.2980555e-02
 -2.6851004e-01
  2.5447827e-02
 -1.5256359e-01
 -1.5841826e+00
  1.3180825e-02
 -3.2071152e-01
  6.6251296e-01
  1.6460013e-04
 -1.3560419e-01
  4.3202168e-01
  6.5416185e-04
 -6.0374868e-01
  3.9857900e-01
  8.1473804e-01
 -9.8781341e-01
 -9.9177551e-01
 -7.9141247e-01
 -2.6061684e-01
 -6.1186385e-01
 -1.7748624e-01
 -2.8245533e-01
 -6.2116688e-01
  6.7270088e-01
  1.7097813e-01
  1.6566265e-01
 -7.5621897e-01
  1.1556424e+00
 -1.4381845e-01
  3.6027068e-01
 -1.0871415e+00
  1.9879991e-03
  1.8432662e-04
  3.9619495e-06
 -5.2583485e-04
 -3.8428899e-04
 -1.3769539e-01
  1.8911250e+00
 -1.3482478e-01
 -6.2635489e-04
 -5.6098303e-04
 -9.3945862e-05
 -2.7871123e-01
 -4.0615330e-04
 -1.0594412e-01
  7.7982575e-01
  3.3001520e-04
  5.8636746e-05
 -1.9297779e-04
  7.5199777e-01
 -5.9356564e-01
  2.2375192e-03
 -2.5830908e-02
  5.1126685e-02
  5.0064617e-01
 -2.6938136e-05
 -8.8015856e-04
 -1.4300339e-01
  3.5128430e-01
  6.9925026e-04
 -3.6067894e-04
  3.1592721e-01
 -8.0068342e-02
  1.1268094e-04
 -9.9954756e-05
 -5.3894788e-04
 -1.0271382e-03
  6.6374145e-05
  9.0750150e-04
  6.3122337e-04
 -1.4783998e-03
  1.2284187e-04
  4.9953192e-04
  5.6788261e-04
  4.3919115e-04
 -5.2534766e-04
 -2.9860943e-04
 -9.5569500e-05
  2.1347875e-04
 -3.8408942e-04
 -5.6548574e-06
 -2.0099858e-04
 -1.3361874e-05
 -4.8072022e-04
  3.1062914e-04
  6.2725150e-05
  7.1464846e-04
 -2.1646237e-03
  2.8010985e-04
  7.9299108e-04
  1.3203700e-03
  5.9623621e-06
  5.0327231e-05
  2.4359245e-04
  2.9342540e-04
  3.6501844e-04
 -1.4741567e-04
 -3.4949905e-04
 -1.2156960e-04
  1.8713860e-03
  1.0949903e-04
 -3.9884230e-04
 -5.5156070e-01
  5.4866636e-05
 -4.7699141e-04
  6.6750229e-04
 -1.0434755e-03
 -1.4500647e-04
 -6.0020736e-04
 -5.8381753e-05
 -1.4224261e-01
 -5.7560066e-04
 -9.6276979e-04
  7.7863260e-05
 -5.0663406e-01
  3.2089747e-04
 -3.9603846e-04
  9.0987574e-05
 -6.0554035e-04
  5.8367680e-04
 -9.9523158e-06
 -6.8774127e-04
 -1.3757090e-01
 -1.0468692e-04
 -3.1652162e-04
  2.6400428e-04
 -6.3956833e-01
 -2.0955004e-04
  7.5326418e-05
  3.0653979e-04
  5.3199399e-02
 -2.9904276e-04
 -3.5699810e-05
  1.2422170e-05
 -9.5879424e-01
  5.6931509e-05
 -2.2965297e-04
 -5.1804858e-01
  1.1395947e-03
  3.9058772e-04
  1.7067841e-04
 -1.0329242e-03
  1.3509073e-03
 -2.3914197e-04
 -7.8206858e-06
  2.2889368e-01
 -9.0319008e-05
 -3.6786776e-04
  1.7570358e-04
 -1.6453159e-01
  4.2906584e-04
 -8.2931150e-04
  5.4085223e-05
  1.4043315e-03
 -1.2478726e-03
 -5.1257084e-04
 -1.0532540e-06
 -1.4502063e+00
  6.7069934e-04
 -3.6793008e-06
 -1.7477055e-03
 -1.3800632e-03
  1.2776753e-03
 -1.6331230e-04
 -3.1757460e-04
 -3.0987805e-01
 -2.1004690e-04
  2.2472780e-04
 -6.1765092e-04
 -3.5122713e-01
 -6.2229700e-04
 -1.7358259e-04
  1.1327916e-03
  1.5592165e+00
 -1.0751164e+00
  1.7630717e-01
 -3.2939969e-04
  3.1356977e-03
  3.6368153e-06
 -1.8541547e-04
 -2.9517687e-04
  5.1620521e-02
 -1.5907973e+00
  1.1571511e-01
 -5.5151415e-04
  9.3854892e-01
 -2.1979482e-01
 -2.4439549e-04
  7.7948658e-05
 -3.3106941e-03
 -4.4019286e-02
  4.9688440e-02
 -5.1059423e-04
  1.9591288e-01
  6.9010478e-01
  1.7736243e-03
 -1.9722410e-04
  2.5251898e-01
  4.4701576e-02
  8.1990566e-04
 -6.3319161e-04
 -1.7582333e-01
 -2.6339418e-01
  7.5673409e-02
 -3.2435055e-04
 -7.1523921e-04
 -2.3892453e-01
 -2.0314688e-04
  1.7445830e-01
  1.7445830e-01
  1.7445830e-01
  1.7445830e-01
  1.7445830e-01
  3.1867151e+00
  3.1867151e+00
  3.1867151e+00
  3.1867151e+00
  3.1867151e+00
  1.6190689e+00
  1.6190689e+00
  1.6190689e+00
  1.6190689e+00
  1.6190689e+00
  6.9877112e-01
  6.9877112e-01
  6.9877112e-01
  6.9877112e-01
  6.9877112e-01
  2.2210346e-01
  2.2210346e-01
  2.2210346e-01
  2.2210346e-01
  2.2210346e-01
  9.7094488e+00
  9.7094488e+00
  9.7094488e+00
  9.7094488e+00
  9.7094488e+00
